2.527598267340922,-0.9232272541113129,-0.3984130671505576,-0.569507339062675,-0.4607775220073911,-2.541843352618611,-1.9395361323975755,-1.8524104808108466,-1.9771371527335988   -0.17441081463297675,-1.6980059145632285,-1.7499693315083193,-1.5062334750638877,-1.9820533887145988,0.17569149828227681,0.1511906068644519,0.14654460888562296,0.0546662863936919   1.6363204100359892,-2.6032578398626907,-2.8195104269688653,-2.6600809245045256,-2.6777819113221684,1.1873074117628548,1.2127143947430732,1.111583615125505,1.1599139025156642   2.363638180205667,-2.0185244724902165,-1.6725622011445482,-1.6560041428219832,-1.694781898940903,1.7020218973634886,1.6992915302904315,1.8281281031432608,1.918453443921396   3.8376271260920505,-0.9130778067081949,-1.1990399152120987,-1.0356331937638623,-1.0447150859638734,-1.437916680812331,-1.087790023686115,-1.05147303362551,-1.1752781948210815   -0.9484892877372848,0.8246073479256618,0.3471172778041218,0.31316040546212776,0.061197474417249056,0.1596894645232247,0.5111741427023013,0.5531791532256888,0.4576405425211791
-0.54104637866259,1.3917794904558363,-1.2412118399681937,-3.2329287168978396,-0.5677394310707327,0.3346563062731672,-0.3533554672232843   -1.7068531839763332,-1.815146068655716,2.2897514884650905,1.497185122036276,0.05551820938295718,0.1519129480587903,-1.7825267801136424   0.4660004428963209,0.302406328502846,-3.1060163015774505,-3.1859032863902157,-4.683123646942736,-3.6759099132364867,0.49067055329904785   -0.6808869300654189,-0.4890807542347913,0.9777191106201556,1.017403810312005,-0.5950758846368603,-0.632335615114227,-1.0787080615548403   0.3565561020683462,-2.751084125263123,0.22732150887581046,3.404000568004232,-1.7237122060063044,-3.0468660975678428,0.614108893444899   -2.304122968112266,1.067886336171889,2.00842165374729,2.851192563621574,0.23063569685649307,2.457868195279637,-1.454923012685576
0.6459224130549093,0.6584145536993913,-2.7936694235126787,4.208977136115515,-0.7996327680600376,0.39678903876665367,-1.9630736456645195   0.013059929882749937,-2.3885915189811047,0.36084494007403795,-2.9755424899909655,0.2494870707756161,2.698493711926569,-1.4757795816059005